0.058563393 -0.06764299 0.07522367 0.04429414 0.07458073 -0.080795795 0.047944754 -0.047944754 0.056296423 -0.07791023 -0.070370525 -0.05073224 0.10034475 -0.040632013 0.063771196 -0.06953691 0.058563393 0.053206984 -0.061020598 0.052565936 -0.07722075 -0.07458073 0.051028922 0.04429414 -0.047423616 -0.050149113 -0.08232024 0.057032324 -0.048209645 0.045447633 0.05225117 -0.048477475 -0.08002387 0.07460484 -0.06264952 -0.13741775 1.4813206 3.6198466 6.539486 8.263041 9.3145485 3.9737296 0.003556556 -0.76870024 0.10285718 0.17008387 0.4228533 1.220976 1.3042707 0.59694254 0.15342689 0.12136377 0.072716214 -0.05557927 -0.045926027 -0.046414603 0.046169024 -0.045212153 -0.05453713 1.1471506 0.293676 -0.12239851 2.2396095 4.576808 2.2310748 1.8552247 5.2856574 5.8579173 7.24336 3.6263423 0.10918053 -6.7749996 -0.71154195 -2.5651422 -3.2926695 -0.49885312 2.6341019 7.1731873 3.9405415 3.2151134 0.57543147 0.06509703 -0.05132909 -0.05976675 0.05778772 0.06188614 0.077557795 2.5683367 0.22480969 -4.035757 1.3794726 -2.9469888 0.6251099 -5.188459 -6.4251013 -4.9634132 -6.7307234 -5.1336474 -1.4880037 -5.1425066 -2.2014282 -3.5393424 -3.7957935 -5.069521 -0.8253302 -5.026172 -2.320925 5.7627163 7.492462 0.7704821 0.121617965 -0.07458073 -0.049579237 -0.084227726 0.0027225264 5.0173173 4.495219 -1.0944128 3.9050765 -2.7041993 0.052797694 1.5468003 1.6996658 2.372418 -2.6726558 3.123787 -1.6729357 -1.1556975 0.32457617 2.0771434 0.3276957 0.27268723 0.12713169 0.34134695 -2.641167 -0.664404 -0.3617052 -1.5556717 3.0568452 1.0171932 0.07458073 -0.072716214 0.2773389 6.395093 -0.87918097 -4.845452 -4.9485335 -3.501159 -3.8205843 -7.7122364 -6.49644 -5.251268 -4.2886314 0.21791163 0.5963789 -0.009589227 -0.27926072 -2.8645487 -0.05081443 -1.8958074 -0.37286523 -1.6182061 0.70480704 -1.2815322 -6.9437284 -12.122655 -3.5616088 -3.4524062 -0.04568558 0.19898415 -1.8124893 4.097569 3.653105 1.8278353 -5.666574 -1.6793457 0.29184043 0.3893443 2.5161388 0.79724216 -0.6077024 -1.3591425 -0.45339093 0.16990547 0.3111789 1.7771946 0.5186126 2.6129827 0.21380384 1.6257796 1.0783583 -2.4162488 -7.654364 -18.573961 -9.526581 -5.068534 -0.097534314 2.7076185 7.88472 3.9755394 1.0723387 1.5807253 4.5165143 2.593631 0.5492118 3.233916 0.31702137 2.34566 2.0781267 0.60668933 -0.41129568 -1.1999971 -0.81518567 1.0339707 0.9608021 0.39471513 0.64475715 1.2834299 -0.6443613 1.0297769 -11.975282 -11.130684 -11.255698 -1.6879836 3.0874474 4.4120803 12.308681 1.7682878 -1.5789657 3.7404613 1.7212673 3.686119 0.63352287 -0.34614065 2.522109 1.5973802 2.208117 0.420826 -2.0689266 1.334849 0.17148599 1.8935003 1.7226167 -0.61194557 1.0441525 0.7227475 0.026345607 2.7783968 -11.430602 -15.649537 -11.967574 1.3800331 0.28886846 6.420694 11.859647 1.9571127 -2.2830977 3.967981 -0.61453575 7.3164725 2.4885428 2.3944392 -0.8561947 0.50250673 2.4224517 2.3504977 3.3565934 3.922694 2.372532 1.7916332 1.6202815 1.6252474 -1.4557621 1.5645847 0.46500993 1.6939399 -5.843056 -18.30755 -14.904338 -0.43249273 0.2455076 5.383294 8.822283 3.9041176 2.073444 3.0629225 -2.3322937 0.60377014 -0.30432457 0.46075198 0.47068784 0.086718746 0.6467285 3.0018432 1.4608963 2.5325036 3.4852726 5.008809 3.4708855 1.3045698 3.4510205 1.5431366 2.6843522 1.1357012 -5.1176753 -15.378679 -15.10101 3.288876 -0.30901816 6.4360447 8.310392 3.3919208 2.6355927 -0.6964977 0.17286456 1.0232823 -1.0132406 1.1562661 1.0265164 1.3068444 -0.016719403 -1.9495541 -3.5158167 2.5621312 1.4442449 1.425754 2.0150056 1.3018087 4.483827 1.8992058 2.8721583 2.116015 2.685891 -5.28623 -8.335134 2.287815 -0.16583477 7.67127 10.919381 1.0714781 0.23803963 2.0399303 -0.94463575 1.2180179 0.54749787 -1.9073101 -1.1754205 -1.2537248 1.513391 -5.024365 -6.145373 -2.4895098 -1.2564217 -1.6224597 0.10596914 -1.9782 -2.1190896 0.45113468 2.7526674 3.0985074 4.053976 5.536217 -4.743159 -1.5095453 -0.11108201 5.4561563 10.943499 7.670274 -4.8035808 -1.5895017 -1.6881633 -0.9349423 -0.9579013 0.22767843 1.9737803 -1.9767382 0.36471295 -11.465727 -4.8276076 -2.4800797 0.79746145 -1.7903732 -5.4534225 -2.4025807 -1.1353675 -2.0255098 2.5531766 1.2687453 -0.5110415 3.9773002 -2.785258 -1.2755709 -0.18069798 1.4445024 7.059054 3.9152231 -3.5033493 0.05260072 -1.4300419 1.5791626 -0.3830784 -2.9676821 -1.9197968 0.1038207 -0.5547171 -9.198596 -2.4162834 -1.8763906 -3.904491 -2.3151248 -2.140727 0.06482547 0.041041397 2.9417312 2.3103423 0.14493605 0.72552013 1.655579 1.7156668 -1.4665482 0.20572087 -1.301679 0.58536226 -1.9747916 -0.9502279 2.5382175 -3.365406 -1.6717924 0.5734937 0.8796312 1.1190841 2.0845952 -4.668246 -9.137929 0.76170903 -3.754508 -1.5966581 -0.8039054 2.556216 1.3680352 0.6946592 1.3227262 1.9488063 3.059168 1.0875242 -1.114646 1.3156651 -0.49108192 0.6060154 0.19934994 -3.465103 -0.56814367 0.36360106 -1.5318992 0.3605044 1.2935462 -0.4194282 -0.08055819 0.42782587 -2.77367 -3.2479646 -4.6112714 -3.8812656 -0.72974104 -2.9109092 1.1894838 -0.7621989 -0.3324983 3.460273 1.5467408 -0.16124533 2.4356875 0.77067447 -4.8994565 1.669837 2.5529292 -0.054198418 -0.25384367 3.7286766 -8.262735 -1.1834377 0.14512552 2.597339 -0.5448753 0.38663816 -1.37776 -0.48476404 0.45675683 -2.817613 -0.46983197 -1.6038743 -1.2854663 -2.4994164 -0.34322655 -0.488457 -0.6062523 0.69906205 -4.09303 -0.5966568 -0.038774367 1.8899316 -8.1641245 2.1829524 0.6477649 1.2451494 -0.34783193 3.2865422 -6.1719255 -3.6041942 3.0211494 0.13064454 1.5093961 -0.21834543 1.0146973 0.58698773 -2.5719833 -3.80463 -2.4043741 -2.0222259 -0.496838 -2.7852972 0.3520928 -1.3833523 -2.0322359 -2.5141113 -0.123845845 -1.105329 2.0288944 -0.48461148 -3.2377703 7.428882 -0.38153017 -0.15666698 2.9767022 -0.81470597 -5.2101445 0.108921565 0.37796888 -2.3408356 1.3301221 0.4285719 1.1749396 -0.38471416 1.7520496 -1.9481406 -0.0625469 0.11631321 -2.0983443 -2.2986648 -2.6087291 -0.5350756 -0.14505872 -3.5556161 -1.8482566 -5.0075746 -3.756481 -6.661104 6.704502 10.357284 -0.6200678 -0.07152414 1.1002744 -3.635794 -5.829073 -0.44907367 -1.8983215 -1.7994565 -2.689663 -0.9741584 1.2584708 1.0892112 2.0640216 2.3918567 2.6491375 -1.5160115 -1.7176142 -3.1015217 -2.9676228 -1.9048878 -1.6480645 -3.3949347 -2.3710272 -2.5056944 -4.0686274 -1.9354154 7.689534 6.2897205 -0.14328665 -0.06899238 0.28960416 -3.2367446 -6.0289316 -4.441574 -0.79181397 -1.2752047 -3.338055 -0.91892624 0.57412785 1.56942 1.4960552 1.3290405 1.362443 0.90112245 1.3683085 -1.6939502 -5.190542 -2.6639848 0.14633083 -2.15657 -0.532407 -3.0289693 -3.5415595 3.6546376 1.5093242 6.4627695 0.08735028 0.085877195 0.09539985 -5.231509 -11.000909 -8.782381 1.1129326 -1.5159618 1.7395494 3.791822 0.2664579 0.679683 0.48759383 1.9387199 2.521238 2.6822643 1.4659756 0.8101734 -0.9320188 -6.0454845 -1.3829854 1.7877668 -2.9706311 -3.1285992 -0.92145336 2.1964202 3.2177002 6.7280326 -0.059595484 -0.05778772 0.045926027 -6.0530148 -8.551764 1.0969248 -1.0362278 -1.6873087 0.27876106 -1.3555046 -0.179563 0.24299578 -1.048751 0.23197715 -2.1875443 2.745139 0.1122616 1.4906012 -0.10226432 -2.359292 -4.583637 -5.0991917 -4.933004 -6.273791 0.86673766 -2.9025047 0.6537298 3.682465 0.07722075 -0.06323149 0.072716214 -6.3835006 -4.124032 8.402192 -1.9905179 -0.98360294 -0.69932526 1.7125999 -0.83882934 1.2941543 -1.3806555 0.34449348 -2.8056946 2.069578 1.5293018 3.139848 4.6651983 -3.9098876 -3.9900348 -1.1257322 1.5229278 -2.6913989 -0.11232019 -0.10080483 -3.279473 -0.018599201 -0.056296423 0.047682762 0.075877786 -8.178324 2.5037065 6.681025 0.25406438 3.1907191 2.0594573 1.1498288 2.7849362 1.9704169 -0.99737793 3.143494 -0.99055547 1.9676089 1.6770579 -1.1194626 0.2922383 -0.6363952 0.9998705 -0.95626444 -7.885116 -3.7744973 -3.6449676 0.597557 -2.395486 0.086285636 -0.06323149 -0.06188614 -0.069253534 0.084717914 -0.34582636 -2.904736 0.86013705 0.84515435 1.6773156 -1.6745613 -2.5059574 0.8299297 -0.12182058 -4.000975 -1.3662833 -0.6408352 0.104301624 1.1201777 -0.014988805 5.3491573 5.2373633 -2.4271388 -6.1662936 2.9928493 -0.4902823 0.1963563 -0.036352582 0.07394869 0.051028922 0.06416136 -0.060596842 -0.08390332 0.06416136 -0.17222488 -0.38135317 -0.3085392 0.83363086 0.578819 3.3181727 0.13051751 -0.39449573 0.728573 3.9536912 -0.71311617 0.9114383 1.4873722 7.344576 3.2806716 6.3964195 3.6265793 -0.17724659 2.3111308 0.74751717 0.08232024 0.05895909 0.046169024 0.055227503 0.047682762 -0.04452013 0.046414603 -0.0449791 -0.080054544 -0.069253534 -0.05817297 0.08390332 0.06661027 -0.06980757 0.049579237 -0.06712266 0.16494454 0.4025361 -0.052871604 -0.100453116 0.04716727 -0.049579237 -0.083104245 -0.06817145 0.084717914 0.060178936 -0.049579237 0.07152414 0.045212153 0.060178936 0.08390332 0.07932678 0.06416136 0.045447633 -0.047423616 -0.07094265 0.06318807 0.042730186 1.3174115 1.5546364 1.3576539 1.1925789 2.857864 3.4039052 2.4599488 1.9598174 -0.3435642 1.23836 2.018546 3.7193422 2.0204837 4.2496657 4.3009086 3.3743753 1.9261948 1.7744915 -0.06188614 -0.050149113 0.04407043 0.058563393 0.047944754 -0.08155089 0.13302979 2.8799472 3.4974184 0.8972045 5.217274 10.691014 12.896387 14.638537 15.499472 17.960497 18.46626 19.971613 16.801445 13.625679 9.788512 7.252207 4.4503903 1.5113391 0.13195536 11.573183 7.705122 6.5533123 3.6515965 1.5833874 -0.05132909 -0.048477475 -0.062328182 -0.052565936 -2.8537366 1.8838389 -4.324213 -0.79166466 1.664409 2.531231 0.6295794 0.118511036 3.1446507 1.0831265 -0.6104594 1.5749586 -0.59199566 0.767154 3.4088185 0.75709903 0.64103806 2.728325 0.7278462 0.81105375 1.7764882 5.3996415 7.429981 4.5002303 -3.9229863 0.07458073 -0.075877786 -1.1123877 -7.3500347 -3.6836722 -4.9209967 -3.0412793 -2.3057137 -0.1467204 0.6112691 -1.0637594 -2.0439234 -1.7883874 -0.7595297 -0.4092977 0.81349534 0.7583959 -0.44169936 -0.16952097 -0.906489 0.44904494 -0.03889224 -0.26221722 0.385424 -2.5025465 -0.23942605 4.9867454 0.8033085 -1.6850775 -0.050149113 -0.05557927 -3.3622901 -8.034278 -1.7832485 1.2119067 0.765927 -0.48525253 -1.1197646 1.53502 1.8241104 -0.17950365 0.31894448 1.5972407 0.045978915 -0.18928519 0.17789158 -0.72602224 0.24334325 0.0166 -0.6245599 -1.2772725 -1.4450796 -4.2754264 -3.9683616 1.1214525 4.231307 -0.80115885 0.06416136 -0.9899784 -5.016195 -3.3714082 -3.0047462 -1.9325191 -1.0008136 -1.4040841 -0.26168504 -1.9835612 0.3303988 -1.4515301 -0.45946756 0.5038523 0.38646838 0.27206796 0.8244098 1.3999084 -0.3038478 -0.53638273 0.972107 0.0046633733 -1.9304711 -1.2089775 -11.492924 0.8217077 -0.5963551 -1.9685342 -0.020595297 -6.8337235 -4.0874166 -5.282287 -0.8788107 4.434038 1.0594522 0.6637057 -0.07308905 0.19384977 -1.5042015 0.913703 -0.4019226 -0.1974488 0.99888897 0.4749633 -1.2629793 -1.5183407 -0.9627392 -0.44203264 -2.8717234 -0.0372302 -2.7179265 0.84125924 -5.550266 -1.3550253 4.84136 -2.4097936 3.0200655 -1.1878499 -1.939558 -5.6086755 -4.890829 0.35972637 -2.9952796 -0.15381907 0.82204837 0.88930494 -0.063859865 -0.80145526 -0.5967613 -0.47139648 0.45132604 0.67831016 0.62829924 2.5884306 -1.3593602 -0.50980085 0.22374219 -0.66677123 -0.57867503 -1.292689 -3.0384529 -2.9577742 8.460455 -1.4575119 0.28869382 0.8784782 -1.523808 0.77800024 1.054992 -0.47161856 -1.0646304 -1.1037939 -3.2212777 -1.1725781 1.2965729 -0.5351524 0.578835 -0.23463802 0.22567555 1.0588218 -1.1622633 -1.6144233 -1.1480907 0.67520577 -1.4849261 -1.506537 1.104853 -1.069791 -1.2911172 -9.204685 1.2649828 2.8729377 0.2783024 0.54849064 3.0293128 1.9250014 -5.9397745 0.1847315 2.7823174 -0.69732136 0.97009856 -0.6359753 0.09117796 -0.13004969 -0.33617365 0.12421843 -0.32949793 -1.0262393 0.79057187 0.37498024 0.296454 -1.3294756 1.024624 0.9695134 -4.4571323 -0.7569281 -0.89976627 -14.267882 -11.16463 -1.1858938 -0.1392095 0.25431505 4.46783 -1.4878123 -1.8580965 -2.8534086 -1.9245595 -1.8880215 -0.9309386 -1.6340418 -0.79009765 -1.9933708 -1.7534277 -1.9179337 -2.7669878 -2.7312818 -2.6275094 -0.8893403 -1.2700448 0.18321553 -0.3657897 0.5673878 1.2910204 1.1416126 3.2440557 -12.113654 -16.249239 2.0195708 0.07208493 0.9188961 5.7503605 -6.993371 -4.6253514 -5.4828043 -1.2663805 -1.0212246 0.1366418 -1.9102614 -0.76742023 -1.7368895 -1.3140755 -0.9265714 -2.3111207 -0.9263329 -0.6907594 -0.95948625 0.44623268 -1.2420189 0.55008054 2.0956066 1.1839074 2.0659602 2.7828414 -5.469297 -6.778616 1.8226273 2.0145757 1.8956258 2.9921782 -5.589088 0.9572779 -2.3862233 -0.5566601 -0.77077526 -0.78254324 0.09819208 -0.6171175 -0.956392 1.2318743 -2.345833 -0.06541182 -1.5676007 -1.5377966 -1.1901878 -0.74300396 -0.20098343 0.47278124 -1.1166223 2.0073783 4.1436605 -0.4949894 0.121178254 2.3555627 0.29536948 2.7641466 -2.278172 0.90648353 -5.675569 4.5304046 1.2201444 -0.015334311 -0.31133628 -1.2244574 0.5389345 -0.007823626 1.6413913 -1.0258491 -2.757017 0.28287503 0.19378011 -0.60318846 -1.919193 -0.7920196 -0.67976874 -0.7943411 0.08475043 -1.7026414 0.15401793 -3.192116 -1.247814 5.4229994 0.9813864 2.4807818 -0.19733262 0.77915084 -3.8502738 1.3034183 3.156329 0.2754319 2.3719914 1.9742326 1.1523666 1.34998 1.6625664 -1.2120701 4.47742E-5 -0.7649124 -0.95735645 0.02272926 -1.1005709 -0.88092893 -0.9334565 0.56771046 0.300963 -0.24251057 -0.42514345 2.5548701 1.5748227 5.6208344 1.1820494 -0.053955916 -3.6331143 0.8945259 -3.7733457 1.196259 0.4810031 -0.027400022 1.2579874 -1.085454 0.7863225 1.4433248 0.78731036 0.38624823 -0.76456594 -0.81470454 0.44514775 -1.8042817 -0.37803584 0.027629485 0.4113117 0.8200084 -0.9053066 -0.60301805 -0.5881354 -0.1480658 4.9357896 6.576422 3.2957602 -0.052565936 -3.9479814 -0.5798697 -5.329022 0.6921793 0.32807988 0.74713606 1.4122984 0.040361747 1.2102245 0.19906159 1.5146931 -0.5899316 -1.2960966 -0.15522458 -0.5174263 -1.103692 -1.3173757 0.6142002 -1.725883 0.29969984 -1.6025598 1.8929422 -1.9002631 3.0567636 11.324438 9.392056 2.9670668 1.531293 -0.83663183 -3.982578 -1.1722225 2.7176576 1.198412 -1.4226606 0.9727513 1.452603 0.06431768 2.1182222 1.2297709 1.7615329 -0.45212936 -0.44574434 1.0317233 0.73255706 2.096251 0.5843552 1.8653107 0.05828687 0.8067274 0.9907199 4.103171 4.658007 3.8745046 1.4742568 -2.6595151 1.8157369 0.9543585 -8.948339 -2.533254 0.05980283 -0.22120851 0.89785045 -0.28018457 0.682087 1.4702848 1.0767432 2.8946567 2.8150878 0.8060146 1.1279718 0.4950268 0.32736197 -0.37968993 0.7158245 0.1601838 1.5781418 0.7503862 -0.49771604 -1.3169796 4.4933147 -0.015066643 7.1393814 -3.6672065 0.048209645 -3.956894 -0.045933895 -2.3258402 3.7912774 0.17768599 1.2173597 1.0679142 2.050853 1.0396128 -0.06839483 2.7042553 0.7183992 1.7590896 -0.4831235 1.0464423 1.675291 -0.09334616 -0.2003789 0.38010612 -0.79901147 0.2557798 1.1806983 3.1897275 -0.11449692 4.2523637 4.3516994 -3.0948136 1.4585676 -4.7579923 0.83673006 -2.7184267 -0.32085088 1.8627865 -1.7203472 0.7005101 -1.5408252 0.07980058 0.7252556 0.37924016 1.0474553 1.2171412 0.965084 -0.73365915 -0.6052006 0.5918829 0.8601992 1.723579 -0.039999012 1.1302211 0.45214623 1.2526609 4.4891634 1.9913812 7.9612455 0.70763916 1.315083 0.8487741 -3.405358 1.3539436 1.020545 0.80323905 1.0369021 -0.38142484 1.7606764 1.0093266 -0.7240546 -0.98761696 0.1277172 0.41083258 -0.18889798 1.9919575 0.923739 -0.38328955 1.5670398 0.25762513 4.0902686 1.9659808 0.33444846 0.6294356 1.9131571 1.9240348 -0.50994474 0.92136025 -0.07722075 -0.07332727 0.45055988 -6.2176642 -0.022321323 3.2542953 -0.7816728 0.70991915 -0.6519664 1.2583027 0.6107141 0.7381575 -0.14632718 0.23375906 -0.6434783 -2.3859625 0.75494176 -2.2718563 -0.49827757 -2.1239555 -2.0385242 -1.1308177 -0.5364068 2.2560892 0.07464154 3.7956953 -2.5914133 -0.05453716 -0.06463663 0.05288452 -4.614275 -13.282924 -4.310992 -1.7292447 -1.0593015 0.21771672 0.6123635 0.68995875 -1.0261971 0.47576228 0.043363377 0.13049465 0.8706533 -0.23670134 -0.7615723 -1.179582 -0.9065619 -2.9223046 -2.487642 -3.7175817 -3.4987 -4.277499 -0.4252986 1.970252 2.7470822 -0.06188614 0.080054544 -0.061020598 -0.04514358 -2.1016393 -5.1783433 -10.452345 -8.22256 -14.262863 -14.739738 -16.340078 -5.2918525 -6.050204 -9.717391 -10.65581 -12.096039 -11.590337 -16.267834 -11.590652 -12.236126 -12.665315 -10.666071 -8.316533 -9.563822 -10.280126 -1.1967981 -0.47922733 2.8166282 -0.045212153 0.04452013 0.057032324 -0.055935547 -0.22901878 0.92101127 0.91821986 8.468118 12.749112 7.126192 2.317013 0.9216883 -1.7278169 -9.596299 -6.1511674 -5.4054914 -4.2017283 -4.149023 -3.8978992 -6.6706085 -5.763558 -5.3977838 -6.653417 -4.101508 -2.2875779 -0.17759305 0.13177057 0.05194015 0.05132909 -0.06870823 0.06323149 -0.049862545 -0.05225117 0.04090379 -0.053430993 1.6023672 1.1648393 0.52192676 -2.1684823 -0.62334126 -3.2779202 -0.87152165 -0.97146523 -1.6559372 -0.88764817 -0.3953085 -0.6088218 -0.45876983 -0.15224831 -0.116030425 -0.47445995 -0.51816356 -0.34900686 -0.059360173 -0.05073224 -0.0449791 -0.06145032 0.043848973 -0.07211525 -0.07932678 0.056661982 0.07654338 0.06610565 -0.050149113 -0.083104245 0.047682762 -0.080054544 0.05453716 0.051632814 -0.20247643 0.18093331 0.23621953 -0.051062696 -0.045926027 0.056296423 0.075877786 0.049022164 -0.05778772 0.049022164 -0.08232024 0.046169024 -0.06145032 0.05353341 -0.044748437 -0.04716727 -0.043848973 -0.07094265 0.048477475 0.070370525 0.07385561 -0.122924164 0.75964844 -0.7827691 -0.52876616 1.3953384 2.7341523 0.761886 3.300124 3.8937197 4.603175 -4.5643516 -6.3296685 -9.431257 -0.56493753 3.605032 2.7570524 2.7235503 -0.0650973 -0.21122858 0.06369303 0.06764299 -0.04407043 0.05453716 0.052565936 -0.06277659 0.044472627 0.56810886 1.4985341 2.2684636 2.2545938 3.3258777 3.076254 1.9039065 -1.6447953 1.790039 0.0502328 -0.35120976 -2.2854671 3.8206382 0.8478075 1.5749874 1.4276128 -1.5588138 1.6800858 1.8571683 -1.1479473 -2.1403348 0.085529126 0.03065083 -0.08725946 -0.06764299 0.048477475 -0.05132909 -0.8454842 -0.8559459 0.5337146 -1.754096 -0.5291436 -1.700921 -1.112319 -5.807189 -1.9353635 -0.935424 -4.541857 -1.894438 -3.9780257 -1.9239771 -4.768633 -0.40982395 -1.6643258 -5.361056 -0.3964074 -7.414578 -0.90575147 0.11385355 -7.884146 0.55284023 -0.061852332 -0.06145032 -0.05132909 0.017006876 -2.6162856 -4.4012413 -10.224791 -2.187861 -3.7050288 -4.047543 -1.136981 -2.2825923 -4.8588004 -4.1962028 -0.81455415 -2.1392806 -0.3754321 -3.716342 -1.0007914 -2.176571 -1.2601454 -4.0605154 2.562272 0.23008566 2.1068532 2.021519 -9.819737 -5.7800674 -1.6323931 2.0119287E-4 -0.08155089 -0.045926027 0.5818327 -2.8173828 -2.4468808 -1.6011173 -7.83084 -1.6136923 -2.2374368 -1.9228885 -1.0763035 -2.559337 -2.6116173 -2.6311693 -0.33171907 0.12875919 0.5315719 2.2550335 0.4876133 2.1022055 -0.91285354 2.498389 1.1689208 1.1951772 -3.634284 -8.753056 -2.429509 0.13260843 0.070370525 -0.07995889 -0.28290492 -4.3793836 -2.336151 1.1547277 -2.0117917 0.6187353 -1.5832498 -2.9618075 -1.9255866 -3.314423 -1.2027268 -2.3540342 -2.2066295 -0.23415975 -3.7616737 -2.91186 -2.96018 -0.51091725 1.0944238 2.4930005 3.103386 6.4883895 15.625518 -1.3738846 -2.8903737 0.8322032 -0.07966537 -1.6885391 -5.177684 -5.293521 -5.948147 0.6850028 -4.1826 0.028060121 0.059915416 -0.8295807 0.5226636 -0.23548114 -3.105294 -0.6079408 -3.0308697 -2.817825 -1.6141233 -0.8401092 1.9956379 0.27418533 -1.4019854 1.2011386 3.8288155 5.9347134 22.113297 4.8227043 1.5494648 2.4687903 0.97208107 -3.1598766 -8.529378 -2.8952036 -5.3313155 -2.2774436 0.880599 0.43416154 -2.5345259 1.2007707 0.1497362 -0.9815816 -2.002486 -3.7514699 -2.4433513 -0.11808839 -2.9683812 -1.0808985 -1.441141 -1.0401973 0.55496174 -0.050471943 0.41247252 3.9328268 18.430864 9.797047 0.15973236 1.0420895 1.9134736 -2.5923321 -7.0439954 -5.0648155 -5.0019813 -0.7542285 -0.39912352 0.5254358 1.7294992 -0.8357416 0.82789296 1.0815625 -1.5595936 -1.5539048 -5.04983 -3.6025374 -0.051338427 -3.1573396 -1.8257095 -0.34988976 -1.7958937 2.365984 -0.20737465 4.73553 15.303551 8.704728 3.5790548 -0.08286485 1.8996868 -4.288294 -3.0450668 -3.8763082 0.8585351 3.0086775 -0.9794453 5.3042884 -0.2623222 2.3264909 0.7125035 1.9538078 5.15736 2.484603 1.033873 -1.167805 -4.393517 -1.6275772 -2.97825 -2.346219 -1.8498024 -0.7761399 0.21193616 2.3545542 8.047434 5.940444 3.484169 3.594704 1.5366528 -4.426251 -9.690075 -4.925257 3.0386477 4.902517 1.5617216 0.7143369 2.5455117 2.7138205 3.1891015 1.6373312 1.4452338 2.6251252 3.0717378 -1.4479296 0.5697955 -0.7206582 -0.005373862 -0.8861983 -1.3575599 -2.0918186 -2.436747 2.5050123 3.849165 4.2023807 5.769531 6.5057254 0.074734055 -0.19174717 -9.491751 -2.528734 1.0149947 -0.3117202 2.317233 -0.6794149 1.7696669 -0.55125165 1.3449033 1.7192411 1.0989358 1.1291 1.780793 -0.2805988 0.9179003 -1.0385637 1.0307354 -2.2530854 -1.9162416 -0.043679472 2.0454137 2.430555 5.813146 -2.0950754 -0.6949637 3.261469 1.3713465 0.95512295 -8.237615 -3.388915 -0.026863748 -0.13713826 0.277748 0.109589554 0.6010652 0.17343588 0.4092668 0.6372046 -0.08989584 1.1230042 3.5764763 -0.09209533 -0.45843536 -0.27663928 -2.1983404 -0.5082305 -1.4521469 -0.56335413 5.1072106 4.5302777 7.553816 -3.1601157 -4.5551 2.508708 3.1404066 -3.0912385 -5.489743 3.4980679 1.0688319 -0.5493116 1.7875576 0.5369783 0.11178585 1.1918658 0.061976273 1.8870635 -0.46468428 0.9863073 2.2906702 0.6095508 0.120598026 0.56886613 -1.0640004 0.38823318 0.89163643 3.0575051 6.2312655 -0.5428828 5.153379 -4.154196 -12.330594 -0.021492139 1.6232778 0.5378217 2.3219345 1.5912273 -0.17950751 -1.1232492 -1.5571901 -0.9011621 2.1354785 0.80541563 -0.22533679 -0.3540371 1.226526 0.65622383 4.1988053 -0.80004334 0.05442638 -1.2155066 -0.1364901 0.27398887 -1.0476185 4.867754 2.5682392 0.6673575 -1.5370523 -0.44116485 -14.556024 -0.3495253 -2.3440664 0.7664217 3.0750983 -4.7368755 1.8443317 -0.12479944 3.210314 0.92023146 0.88973135 -0.41913047 1.4918721 0.64270777 -0.17704497 2.6986175 2.7544308 2.129471 -1.221946 -0.22351189 -2.13173 0.76438725 1.0460968 0.23844142 -2.4469926 0.042598575 0.9856791 -2.5673845 -11.615168 2.8622313 0.07394869 0.7754677 -0.080624245 -7.0690928 1.9747422 -4.3212876 -1.5199937 -1.0769503 0.81350696 -0.7712573 0.30284327 1.418132 1.0294533 0.24516037 3.9782314 -0.20210037 -0.2518075 0.89140195 -0.29372126 1.0796696 1.7639619 -0.40477246 -0.9325887 2.648942 -0.45429608 -11.217003 -5.384275 0.04041753 1.3351778 1.1033821 -1.265241 -2.7406824 -1.385072 -3.990064 3.33201 2.0672476 -1.3701707 3.555835 0.89416885 -0.6812279 1.9499091 0.7746846 0.9053596 -2.1676648 -0.2667194 1.6034895 0.46903312 -0.35554737 -1.0188961 -2.7929072 -0.54256153 -1.9329034 -0.8496955 -14.170109 -2.2189229 2.6638649 1.4327425 -2.4923444 -3.0799894 -0.5364608 -2.8882334 -5.302088 -0.5449101 -3.524413 1.9526877 1.1297888 2.148131 3.28834 0.20787606 1.0268394 0.909604 2.570329 1.1465604 -1.2098827 -0.25804853 -0.08999128 -1.0443566 1.2493749 -0.69381547 -0.6380263 -0.57597744 -6.37469 -3.074569 4.561385 0.054198418 -3.2514722 -2.9087813 -2.2938688 -6.0230327 2.536429 -2.3565223 1.2043878 -0.7494746 -0.26129758 0.64778775 -0.15685362 1.5047058 -0.014960965 0.6672356 0.47727698 0.373846 0.71490735 1.1438403 0.058848202 0.39068717 -1.6244371 1.2053387 -0.30418882 -0.23184569 -4.863839 -4.6185536 1.4960496 1.4959873 -2.5416508 0.4076398 -0.36527252 -1.6488643 0.35462692 -1.0265917 0.45356217 0.18274373 0.23752154 1.9572521 0.5671283 0.2209515 1.2652072 -0.19722106 2.1925368 0.40231225 1.1553779 0.4997883 -0.8998145 -0.19078068 0.71991295 0.8326985 -4.7188864 -2.195336 -8.488531 -2.2788615 0.9343091 1.4812534 1.0296639 -0.86174965 5.115908 -7.7016077 -1.4836055 -1.645598 -0.8224357 0.11745585 -1.0938684 -0.8009303 0.43947852 1.0368197 1.0158651 0.3762788 0.390423 2.3184836 1.1357487 1.7128197 2.0764754 1.3563265 0.07949524 1.6206572 -4.1403465 -4.198688 -7.2673755 1.472033 1.0598291 -0.06980757 0.05895909 -0.8252971 4.157331 -4.954862 1.1239941 -1.6799322 -1.989862 1.7540197 -1.3037161 2.5856678 0.35019222 1.2565436 0.64781153 3.1986048 0.42158931 2.5908558 1.277433 1.8636436 0.07844921 3.7281232 3.8522122 -0.34725836 -2.7245853 -1.7896618 -3.593297 4.4701567 0.07522367 0.05453716 0.054198418 -0.4714002 -0.29129753 -6.622999 -7.0846553 2.4950356 -2.1330116 -1.2544724 -0.25791928 -0.27945685 -0.24444067 -0.62945634 -0.33136815 0.55274767 0.012782479 0.036885377 1.4206116 -0.21822345 -0.056363583 2.6573815 3.6546955 -1.8061754 3.4021075 -4.436672 0.46437302 -2.5648382 0.046414603 0.051632814 0.05453716 0.3929863 -0.3389953 -12.02779 -14.729896 -12.625406 -10.783641 -13.828738 -6.658876 -9.544553 -5.440382 -7.9334025 -5.685807 -6.1640997 -5.091743 -4.4868054 -6.7906876 -6.298961 -9.171732 -6.5582166 -12.511757 -11.937906 -4.9103827 -7.115973 -2.9927044 -2.98626 -0.045212153 -0.0863955 0.04716727 -0.04429414 -0.46038523 -3.2712343 -9.267534 -18.723984 -18.254494 -18.993195 -17.73748 -6.3137717 -5.993181 -12.136465 -8.164266 -10.351792 -13.702782 -15.181397 -9.423421 -10.674265 -10.358839 -19.4671 -16.122534 -12.380892 -3.8390357 -1.313551 0.03565671 -0.07932678 -0.05132909 -0.05453716 -0.05976675 0.05386386 -0.05557927 -0.05767181 0.13752073 -0.41720644 0.35568887 -1.704178 -0.15845244 0.8272123 -1.5406401 -1.2752926 -3.7935498 -7.9197974 1.4743955 5.5525556 1.3372388 -4.0074944 -3.6781528 -3.6664515 -0.8865443 -0.18445337 2.3060145 -0.07394869 -0.049579237 -0.07211525 -0.05976675 -0.07211525 0.056661982 0.04929913 0.06817145 0.047682762 -0.075877786 -0.047944754 0.050438993 -0.06323149 0.06369303 -0.07332727 0.06661027 0.8123978 0.2417324 -0.7344337 -0.02733779 -0.0449791 -0.046913687 0.04929913 -0.049579237 0.0449791 -0.06369303 0.051632814 -0.07458073 0.07932678 0.04568558 0.070370525 -0.044748437 -0.054198418 0.0449791 0.060178936 -0.04716727 2.6196344 4.1815176 3.4826138 5.372052 3.7118864 2.0582066 1.0936238 6.949386 -0.81592935 5.1670704 -0.4647095 3.725704 3.6269505 -1.7232838 7.4054666 2.8821166 4.670902 5.0774236 2.099239 1.8029244 -0.049862545 -0.07522367 -0.048209645 0.04452013 -0.06712266 0.06463663 1.6449358 -1.1775093 8.012026 -0.39364612 1.3932576 -3.765562 -0.3294958 -1.0546945 -3.7994971 1.4542495 -2.127332 -2.580491 0.09375953 -1.575346 1.978212 -0.8117818 -2.238236 -3.727757 -0.99504644 -1.0098885 2.4147885 4.5622764 8.380754 4.662249 -0.07932678 -0.054198418 -0.05225117 -0.060596842 4.375632 4.550769 0.673165 -0.048000574 1.9485636 0.36626303 -1.0540955 0.105214395 0.4251719 -1.4176478 0.7294931 1.3935202 0.008399526 -0.88239187 -1.7530619 -0.3442415 -1.8455541 -3.430572 -2.7521205 -2.583875 -4.1780024 -6.5185094 -2.319879 -2.4093206 -0.17409834 0.047423616 -0.050438993 0.0928576 2.0352638 5.8526917 0.84743273 -0.7976071 0.97066593 2.2149346 0.85800284 0.1806891 0.0918818 0.011315104 0.03593329 -0.072154686 0.12891363 -0.20317765 0.07263164 -0.013993668 0.1623584 -0.16788332 0.17565492 -0.3026053 0.03211298 -1.0822083 0.24752022 2.7227993 0.59928906 -3.0298874 0.047423616 0.06188614 3.7981405 2.30396 2.8886752 0.115997195 -0.04118057 -0.87236655 -0.36739928 -0.6736782 0.16960542 0.24206656 0.4160171 0.24108548 0.35397914 0.27442554 0.29116768 0.50081897 0.09907607 0.27266568 -0.0810936 -0.16583961 -0.69775414 1.0110543 0.1929607 0.8071331 3.9118261 -2.640266 -0.07211525 1.9322817 0.16956109 0.5907837 -1.874844 -1.5729055 1.5171865 -0.41534576 0.6323129 0.57028425 0.08555508 0.25559804 0.23844929 0.3807849 0.2679749 0.33851227 0.30706885 0.08790229 0.28396532 0.4887854 0.46865508 0.5047283 1.0934412 -1.1649384 0.624233 1.4158913 11.973164 6.9421873 -1.9161984 8.046266 -4.407903 0.6322986 0.68930143 1.2586552 -0.17811376 0.7322918 0.3379091 0.39273947 0.6143363 -0.02806917 0.24723874 0.17376648 -0.025148436 0.41902766 0.1633771 0.031524263 0.17581967 0.141512 0.3109586 0.1806113 -0.47046018 1.135569 2.7861347 3.7557738 3.7184737 7.4750457 0.38952133 11.433488 -2.2884357 -0.54206204 -1.0100784 -0.62815285 0.35019243 -0.15326048 0.25746408 -0.1439907 0.2829495 0.60672015 0.279077 0.1990417 0.5975744 0.09254014 0.32822347 0.07753758 0.22872028 0.33136806 0.18349779 0.7889794 0.33857408 1.7506151 0.9586775 4.473816 12.133149 4.030566 1.5021172 1.062714 -3.3878925 -0.87634254 0.59392416 -0.43619674 0.030474227 -0.14579454 0.64044946 0.28906968 0.20489682 -0.053911958 -0.03156461 -0.04663008 0.063555725 0.2758448 -0.15011509 0.26125532 -0.22134583 0.5363623 0.01564026 0.3263028 1.4113756 -0.8619282 6.763937 1.5370046 15.808577 6.021809 3.4370828 4.3730536 -1.4502844 -0.7801218 0.72754884 0.16504915 1.3180268 0.2569 -0.4611701 0.21438093 -0.30141667 0.29841536 -0.613543 -0.61519355 -0.8670233 -0.59866637 -0.20423171 -0.31907833 0.017588476 -0.19374882 0.4741239 0.41855484 0.76326805 0.50720584 3.8532214 6.520604 6.338152 -3.5585518 -0.97517693 1.1642455 1.6540393 0.16296817 -0.07314409 -1.1291225 -0.84244716 -0.49749285 0.30632538 -0.9533132 -0.45189288 -0.73769665 -0.076984935 0.27885967 0.09352851 -0.3118008 -0.25200582 -0.37842977 -0.39672437 0.15352961 -0.62376165 -0.15000635 -0.34632665 0.32329625 5.241679 8.001495 2.5783536 -5.276361 -2.621654 5.6543503 -1.6446512 -2.306616 1.8379304 1.3886833 0.21477757 -0.8456761 -0.706424 -0.91260576 0.0937051 -0.17165306 0.17738245 -0.32287672 -0.19617438 -0.21951891 -0.048298877 -0.20819624 -0.05215031 -0.7408231 -0.4354553 0.09506683 -0.7583043 -0.008443849 0.58060926 -1.4970529 6.4638853 -0.94336957 2.7805505 4.613878 2.313853 2.5888946 -0.98029584 0.12620139 -0.42983985 -0.6976639 -0.33723062 0.7136953 -0.9958325 0.094555296 0.2980763 0.29234755 -0.3321768 -0.27036348 -0.20099184 -0.1769966 -0.6323957 -0.31111515 0.18334222 -0.821462 -2.2756991 -1.5804462 -1.6626269 1.2939913 8.34616 -0.34794742 0.018706795 -1.6323022 -0.70005816 -2.2615542 -1.9608777 -1.1151251 -1.7971481 -0.65274346 -1.196317 -0.62271094 -0.63204175 0.6787941 -0.31316692 -0.533593 0.120687015 -0.0061159246 0.084100775 -0.39810795 0.032709908 -0.837514 -1.2705927 -0.17895468 -0.6471229 -1.1102241 -6.207116 0.5376852 9.747167 1.3093519 -2.1045597 0.5190326 0.5678733 -1.488414 0.69734627 1.7315084 -2.7712116 0.15791851 -0.21979378 0.018378917 -0.12996617 -0.2343495 -0.110462904 0.1960362 -0.22073025 -0.21581131 -0.36254272 -0.734392 -0.30179033 0.029035432 0.18142235 -0.87397987 -0.6327534 -1.8328478 -0.5256544 0.64504313 5.650023 0.7195204 -2.6786695 1.4890064 2.4106414 0.6816683 -1.7159017 1.4094993 0.2635975 -0.99195737 -0.6754945 0.8760533 -0.4610884 -0.23339528 -0.22278859 0.070989065 -0.4725601 -0.2233513 -0.44397342 -0.5395532 -0.12452935 0.12522377 -0.45377347 1.0992715 -0.27922168 2.0503893 3.024549 2.9526978 5.446653 -3.1540608 -0.06323149 3.732991 -2.5931187 1.5323331 0.7181892 2.23541 -0.9276511 -0.15513791 -0.1650796 -0.4436419 -0.83981 -0.35941288 0.1927625 -0.45659485 -0.12286727 0.0702773 -0.34056175 0.26744655 0.10329165 0.39355817 -0.1906284 0.113051504 -3.7533662E-4 -0.92217475 0.24915433 2.3868434 8.720208 -1.3876586 -2.90569 -0.2929463 -0.071772456 2.9569895 3.6066341 -0.87503237 0.5572852 1.3849326 -0.58271223 -0.03401468 -0.56994957 -0.4491097 -0.57341754 0.1971695 -0.52780783 -0.279628 0.30215338 0.23742776 0.9596731 0.25752613 0.86587054 0.88828844 1.7308828 0.9461275 3.4370751 2.5984507 0.16370119 -0.90897 -1.6444199 0.4401983 -0.05661425 -2.5580888 -1.1904826 0.7367454 3.398272 1.5159181 0.9083612 0.66061646 0.42365268 0.036267735 0.04690055 0.08289175 0.5182324 0.41413218 0.7787264 0.5737596 1.1998706 0.20288579 0.23009504 -0.47436976 1.1795137 1.0980877 0.46526995 -1.2226257 4.636941 0.80350757 0.048477475 0.73881716 -2.1731663 -2.1566885 0.19635792 6.0963035 1.4034657 -0.07416046 0.5921902 0.774435 0.265755 0.11619735 -0.37290615 -0.26611364 -0.518124 0.1416651 -0.34205687 0.12051653 -0.27858666 0.78849417 0.66050965 0.8155869 -0.76480097 2.6549425 1.048512 -0.084052615 1.7183532 4.5204496 -1.7325842 0.95890725 2.4292367 3.794645 3.9084718 -0.41977605 0.7377837 0.49146652 0.5325523 0.0982328 0.2628106 0.25449362 0.02459074 0.080286585 -0.24449798 -0.34967935 0.6143726 0.12995185 0.97427756 -0.14079821 1.8359933 0.99974424 2.2075558 1.4071444 -2.9594135 -2.0728128 -0.50301796 0.1702262 -1.8322365 -1.7552842 0.0031227914 10.9905405 1.3436474 -0.29689652 0.1559177 0.15427707 0.18998632 0.8033334 0.5925015 0.85019034 0.84408736 0.57099366 0.57698596 0.5531371 0.3194539 0.16512623 0.24253806 0.6823787 0.66496444 1.5214247 0.6232137 -0.10896731 -1.8447127 2.4400282 -1.8371109 0.23256284 -0.05353341 -0.048209645 4.2141333 19.265789 -0.76338404 -0.12828083 -0.6983623 -0.34884125 -0.37796164 -0.22165072 -0.055382527 0.27064797 0.16728878 0.4069719 0.46203965 0.34496233 0.10223638 0.08401637 0.062341142 -0.86814976 -2.042945 0.7201443 -1.541028 0.047000907 -1.7217855 -0.31198937 -1.8879758 -0.047944754 0.07094265 -0.065119 1.6878157 8.569933 0.29182094 -0.61851233 0.20092438 0.19617878 0.1899303 0.4670878 -0.06585353 0.5565118 0.3923881 0.32916525 0.11012892 0.29591572 0.41109794 -0.016504062 0.15022121 -1.1997799 2.7534168 -1.4834262 -0.6649003 -1.9265608 0.1129132 -0.71004385 -0.07801136 0.06610565 -0.05488016 -0.07094265 -2.0208805 -5.28565 -1.1779646 -2.421283 0.21185277 -1.1395557 -0.6299065 -0.2859697 -0.31682143 -0.40965503 -0.47858617 -0.67125267 -0.044834588 -1.2301648 -0.32879862 -0.40434873 -1.103893 1.6134175 -3.3360856 -5.514394 -6.6320353 -11.700307 -2.084519 -0.79626304 2.732455 -0.084717914 -0.043848973 -0.07722075 -0.083104245 -3.2032976 2.2899594 -2.877818 -3.9358518 -9.366942 -2.9239576 -4.7258897 -0.08929035 -1.8241597 -1.7098886 -0.5714437 -2.1239374 -1.1945448 -2.7377858 -0.29767534 -3.571825 -2.3974938 -13.57065 -4.448519 -3.9152973 1.575159 -1.9661924 0.35845223 -0.059360173 0.057407536 -0.06277659 -0.06610565 -0.055227503 0.053206984 2.2706103 5.6544533 3.1694806 7.849803 4.241931 3.7400653 1.6462516 1.949519 2.3966858 0.43591392 0.24949802 5.5143094 1.1262002 2.0734708 7.6092052 4.046931 0.5096697 -2.486179 -0.91089964 -0.2358337 -0.05778772 -0.07654338 -0.04429414 -0.05557927 
9.3554325 0.77192944 0.3488712 -3.2504096 8.674297 -0.21243511 -4.118239 3.4186456 -2.2047985 -1.4610589 -0.008757624 -0.8062995 -1.9090399 87.682 1.6236411 1.8526331 
0.22236377 -1.915873 -80.93112 5.7868934 -28.723667 -44.722843 12.849086 8.758738 -9.826448 4.1029167 -28.911676 2.2439482 -73.21015 6.0030046 8.961173 -4.4441442 8.567082 -63.486877 15.959365 -11.916156 -58.49974 -4.449849 -2.011791 5.050922 4.015117 -12.854724 -21.86709 4.6458197 -1.8218498 10.204593 0.64499277 -15.572027 -43.380108 -4.8440895 -0.520705 4.010986 -4.335059 0.03069601 23.22685 -13.721647 
